{
  "layers": [
    {
      "activation": 1,
      "biases": [
        -0.5341958929171488,
        0.3402094060626688,
        -0.1527625834644959,
        0.7009656461215161,
        1.0417156070082985,
        -2.812481309982662,
        -0.6557233304696158
      ],
      "cols": 7,
      "rows": 2,
      "weights": [
        [
          1.4403983767195525,
          -0.9566170234764698,
          5.036246320064751,
          -0.9185045338752331,
          -3.5445186717203687,
          -3.2045363994329277,
          0.2935332757990343
        ],
        [
          1.1154470671646837,
          0.20352153891271454,
          -1.3425275039752405,
          -1.6576020265779903,
          -1.3522953476731465,
          3.6349385937532985,
          2.196107163281804
        ]
      ]
    },
    {
      "activation": 1,
      "biases": [
        0.8876474980207947,
        0.8635518534961398,
        -0.5775510651233742,
        0.25554937046706033,
        -0.12279633067147916,
        0.3804483427096633,
        1.0532660318587326,
        0.21635491997453357,
        -0.21139663624340282,
        0.08794778412031896
      ],
      "cols": 10,
      "rows": 7,
      "weights": [
        [
          -0.30212489398302944,
          0.1843535020648451,
          -0.1683439244860434,
          0.2869648572151505,
          1.0991943338999284,
          0.34987527564039284,
          -0.8719713277519422,
          -0.47092535470711033,
          0.4961518242747261,
          -0.2450738779077047
        ],
        [
          0.14425611551895484,
          0.94485400219128,
          0.2037506946817722,
          -0.44521521247179724,
          -0.23563149343748377,
          0.1887760973230412,
          1.4084696812274102,
          -0.14812621734360562,
          -0.04918503654962642,
          -0.057639352988396904
        ],
        [
          -0.5830941574901627,
          -2.356894441980094,
          0.19622957826476944,
          0.21064561335095813,
          -0.05080795669570277,
          -0.9882322184291574,
          -1.9845983730208892,
          -0.6789457682080376,
          -0.15461913621610415,
          -0.40308318391939546
        ],
        [
          1.2000445490840699,
          0.22525136117437464,
          0.046046284438193,
          -0.8866789726426479,
          -1.2395538630003218,
          -0.06715936004449653,
          1.2031068056502767,
          0.6081653176267506,
          -0.8442307905690188,
          -0.30551258986943264
        ],
        [
          0.9239050220579256,
          1.352547336905687,
          -0.8546915966308295,
          -0.6684099633218233,
          -0.34775303231526566,
          0.13033416975804535,
          3.428734708680528,
          1.6125056523040682,
          -1.1273371969164179,
          0.6980624929435143
        ],
        [
          -0.3944600549884687,
          2.6870222895817504,
          -0.6915143372701935,
          0.42018837229952655,
          1.4348315976560098,
          1.4598027585803977,
          0.27341422535868365,
          -1.3594877740999904,
          2.042953414049824,
          0.011974946042113889
        ],
        [
          -0.8629528292588068,
          1.4934582681372606,
          -0.01291892936890432,
          0.7041629158326641,
          0.6604165755527319,
          1.1675823715541687,
          -0.4470179100513713,
          -0.7843847892574036,
          0.6482733943470074,
          -0.49043870147009727
        ]
      ]
    }
  ]
}
