{
  "layers": [
    {
      "activation": 1,
      "biases": [
        -1.4067737448830935,
        0.04505312946326065,
        -2.0098539939753515,
        4.742123439230505,
        1.2766609000687672,
        0.550442232359753,
        0.3583121167041906
      ],
      "cols": 7,
      "rows": 2,
      "weights": [
        [
          4.2616184606006335,
          9.01563532567034,
          2.358055803683982,
          -4.917190922369868,
          -0.08951976582982747,
          -0.3523562706239522,
          -4.633292675046785
        ],
        [
          4.125193623749094,
          -3.527179975079126,
          0.12057083957775909,
          -0.9093134954158021,
          -1.1385595492009613,
          1.363803181488281,
          5.017750685053743
        ]
      ]
    },
    {
      "activation": 1,
      "biases": [
        -0.11836099031212055,
        -0.6353558974952483,
        -1.2853326473575795,
        0.0036175211415365605,
        -0.47345148048351837,
        1.9696483673441245,
        -0.03082255283736981,
        -2.177716270861578,
        -3.5905730676951273,
        -1.034406857908686
      ],
      "cols": 10,
      "rows": 7,
      "weights": [
        [
          -0.8175456478331828,
          0.043511090823028974,
          0.7615451142406584,
          0.40610134066007736,
          3.9050623853217594,
          4.099496442487496,
          -0.43705425616961485,
          1.3875101008639608,
          -0.07678544365914906,
          -1.4518174318867563
        ],
        [
          1.5668450269109062,
          1.0467463006543078,
          1.1067230408784547,
          -0.18369829458830833,
          -2.2862347361855235,
          -4.695303467055734,
          1.6051091038217606,
          1.3127314571532738,
          3.7489624354187008,
          2.0360962365989193
        ],
        [
          0.3723238905158546,
          -0.5661182913062686,
          0.09032074441795823,
          -0.15796113807351544,
          -0.09286882164872759,
          0.5310613262358636,
          0.008602960375348178,
          -2.282099519665968,
          -3.7163957565705172,
          -0.7617599363824269
        ],
        [
          0.013736680621432185,
          -0.16997721254503373,
          0.22520529008014883,
          -0.25925378742813826,
          -0.0011624047382515095,
          0.48729078039851337,
          -0.6387723000878627,
          2.5579635580217412,
          3.134705228015718,
          -0.6742517811943587
        ],
        [
          -0.9075258705459087,
          -0.5730197799144772,
          -1.600636880607948,
          -0.03656464675628083,
          0.14755300986759212,
          1.7929753820211334,
          0.7573733006057535,
          0.07690433046651814,
          -1.1968772227184097,
          -0.37658560325622387
        ],
        [
          0.24184275250549556,
          0.48298773403717127,
          -0.4495236074904055,
          -0.6771026564027361,
          -0.3888316051240501,
          -0.42696122218449256,
          -0.6680337732538674,
          -1.9057141984314259,
          -1.4370099844848785,
          -0.37967309067043553
        ],
        [
          1.3780548014515641,
          0.6206185033744177,
          0.810952347300251,
          0.042239985828132064,
          -2.038489094862764,
          -3.9443373909747894,
          -0.7613682554827923,
          0.3114377863548079,
          1.8736094484470454,
          0.8237417244834125
        ]
      ]
    }
  ]
}
