{
  "layers": [
    {
      "activation": 1,
      "biases": [
        -11.66337511203236,
        0.48325371754102875,
        -0.9595283331671239,
        1.3188299582979421,
        -4.245079948598086,
        -12.048376520428267,
        0.48236039148602267
      ],
      "cols": 7,
      "rows": 2,
      "weights": [
        [
          -4.474165940962213,
          -6.295096398938541,
          -0.3859457606918594,
          6.8547933586693475,
          9.413006912175666,
          17.143114348266984,
          -0.05450593204945613
        ],
        [
          16.54628610110846,
          -3.2127099166533646,
          0.333475355276605,
          -4.1085455690273704,
          -3.8923184025099853,
          2.5009141178829086,
          -5.953119644621993
        ]
      ]
    },
    {
      "activation": 1,
      "biases": [
        -0.5020616208169659,
        1.6973255148989248,
        2.0337597632531956,
        0.5397805076074356,
        0.3025073859285259,
        0.2163585749418365,
        -0.033196657864913805,
        0.17874003840769848,
        1.2486985463665328,
        2.0981951599117696
      ],
      "cols": 10,
      "rows": 7,
      "weights": [
        [
          -4.246323151799876,
          -5.872907654256669,
          -2.64119462620581,
          -2.475001746308803,
          -4.263423605362812,
          -10.094615970751828,
          -3.761880429822392,
          -5.738400165507444,
          -3.7449393258608192,
          -5.718557676115203
        ],
        [
          -1.5661010222900709,
          -1.4513367826337444,
          -2.7985136085769367,
          1.2022553121188848,
          0.07578540051198365,
          2.641640823486768,
          -2.502497184594886,
          -2.9744535360338693,
          -0.2566487160247869,
          0.008670063795018472
        ],
        [
          -0.5062169173767923,
          0.5321110776492746,
          0.4778909146269486,
          -0.3288306518781887,
          0.38079020944282677,
          -0.4807045155695181,
          0.06279031617868243,
          0.29773370518802494,
          0.30613811201192026,
          0.4887990637692944
        ],
        [
          1.4701947738885945,
          -0.6782605731254662,
          -2.8585654369697227,
          -1.3413729419545586,
          -0.7198958627895408,
          1.8501605255763907,
          0.5547984722591628,
          0.7553610221562297,
          -2.3362606980405753,
          -3.644892099650301
        ],
        [
          -3.4019987528988884,
          -1.8405203969667143,
          2.328907592758104,
          -3.4922418754739692,
          -1.4322260084124383,
          -4.388588593237096,
          -4.788947873123041,
          -5.483813179791341,
          0.8733673732724316,
          1.9681369111358111
        ],
        [
          2.3251982230866655,
          1.8993070570268635,
          -1.0238258105229139,
          2.6386805549351995,
          1.5387657600342493,
          4.822057221917339,
          2.9810325994522073,
          4.672971144325285,
          1.3910706236263062,
          2.84368984802823
        ],
        [
          -0.5249027042938821,
          0.30923256178927,
          0.6614022901830966,
          3.676475109925529,
          -0.4053434620621207,
          -2.98867897686494,
          1.8291213088578113,
          0.5644040756845478,
          -0.13274974208092655,
          -0.814877459139497
        ]
      ]
    }
  ]
}
